tree
version=v2
num_class=1
num_tree_per_iteration=1
label_index=0
max_feature_idx=10
objective=binary sigmoid:1
feature_names=Column_0 Column_1 Column_2 Column_3 Column_4 Column_5 Column_6 Column_7 Column_8 Column_9 Column_10
feature_infos=[-2.4326686697623598:1.0893198579623053] [1:2] [-10:7.7272727272727275] [-3.6470588235294117:7.5294117647058822] [-13:795] [-8:1092] [1:3] [1:3] [0:1] [0:1] [0:1]
tree_sizes=1368 1369 1386 1365 1396 1375 1382 1382 1392 1388 1389 1380 1395 1387 1375 1392 1389 1388 1373 1376 1378 1402 1386 1392 1401 1395 1388 1397 1394 1386 1400 1390 1386 1383 1384 1394 1389 1375 1357 1398 1387 1371 1366 1380 1366 1375 1376 1363

Tree=0
num_leaves=16
num_cat=0
split_feature=4 0 4 6 6 6 0 0 4 4 0 7 5 6 6
split_gain=9944.27 1280.06 1068.48 397.714 332.494 262.774 198.201 179.819 84.7418 67.8037 62.3537 60.5485 53.6912 47.2006 45.2581
threshold=0.47500000000000003 0.038377492488391153 0.92500000000000016 2.5000000000000004 2.5000000000000004 2.5000000000000004 0.6846490030046436 -0.98402075935536726 -1.0000000180025095e-35 -0.074999999999999997 0.64094509696804158 2.5000000000000004 0.95000000000000007 1.5000000000000002 1.5000000000000002
decision_type=2 2 2 2 2 2 2 2 2 2 2 2 2 2 2
left_child=1 3 5 7 6 10 9 13 -9 -3 12 -5 -2 -1 -10
right_child=2 4 -4 11 -6 -7 -8 8 14 -11 -12 -13 -14 -15 -16
leaf_value=-0.15448164329813771 -0.012361731275948242 -0.084686121844321519 0.13050432884972651 0.090987715783954981 0.071411120779486775 0.11664216475419836 0.0082470859859676525 -0.12658720252344688 -0.096840974053424081 -0.04311412370789882 0.0592160775636216 -0.020151250925022384 0.03213168195837824 -0.089732929315508914 -0.046586964839816829
leaf_count=4619 2675 2099 14579 344 1230 1276 2760 4315 7645 6219 1079 456 1825 499 791
internal_value=0 -0.724667 1.04731 -1.05478 -0.223949 0.396096 -0.333484 -1.11654 -0.989434 -0.487583 0.208827 0.324848 0.105291 -1.43322 -0.872826
internal_count=52411 30977 21434 18669 12308 6855 11078 17869 12751 8318 5579 800 4500 5118 8436
shrinkage=1


Tree=1
num_leaves=16
num_cat=0
split_feature=4 0 4 6 6 6 0 0 3 4 0 7 5 6 3
split_gain=8079.98 1044.16 873.931 323.828 269.594 214.032 160.722 148.537 73.6179 55.185 51.6947 49.1667 43.8249 39.0307 36.6688
threshold=0.47500000000000003 0.038377492488391153 0.92500000000000016 2.5000000000000004 2.5000000000000004 2.5000000000000004 0.6846490030046436 -0.98402075935536726 -0.53823529411764681 -0.074999999999999997 0.55544933078393888 2.5000000000000004 0.95000000000000007 1.5000000000000002 0.64411764705882379
decision_type=2 2 2 2 2 2 2 2 2 2 2 2 2 2 2
left_child=1 3 5 7 6 10 9 13 -9 -3 12 -5 -2 -1 -10
right_child=2 4 -4 11 -6 -7 -8 8 14 -11 -12 -13 -14 -15 -16
leaf_value=-0.13550681105385429 -0.010283438910518609 -0.071989334229601826 0.12235275892624048 0.08643498759503053 0.068721819176765037 0.10972448602257888 0.011784188463261276 -0.1159078790272568 -0.086884849306215498 -0.034457474636684242 0.050329729392950967 -0.013775812305772864 0.031948326793097011 -0.076557363279533899 -0.05623390601083024
leaf_count=4619 2396 2099 14579 344 1230 1276 2760 3145 7637 6219 1516 456 1667 499 1969
internal_value=0 -0.653829 0.945695 -0.952746 -0.201697 0.356816 -0.300328 -1.00865 -0.893079 -0.43919 0.187998 0.292665 0.070415 -1.29739 -0.806017
internal_count=52411 30977 21434 18669 12308 6855 11078 17869 12751 8318 5579 800 4063 5118 9606
shrinkage=0.1


Tree=2
num_leaves=16
num_cat=0
split_feature=4 0 4 6 6 6 0 0 6 4 10 4 0 3 5
split_gain=6600.66 866.048 727.304 274.213 229.052 176.097 167.732 83.3288 66.6882 61.1691 56.273 47.4083 42.9018 39.8879 35.181
threshold=0.47500000000000003 -0.074023490849494653 0.92500000000000016 2.5000000000000004 1.5000000000000002 2.5000000000000004 0.6846490030046436 -1.0159792406446324 2.5000000000000004 -0.074999999999999997 1.0000000180025095e-35 -0.074999999999999997 0.62346353455340087 -0.13823529411764712 0.95000000000000007
decision_type=2 2 2 2 2 2 2 2 2 2 2 2 2 2 2
left_child=1 4 5 6 7 12 9 -1 -6 13 -11 -9 14 -3 -2
right_child=2 3 -4 -5 8 -7 -8 11 -10 10 -12 -13 -14 -15 -16
leaf_value=-0.12593448400467142 -0.0068889803719169836 -0.09156439027644267 0.11147641991359727 0.060053927245697504 -0.054516468087376195 0.099729386621802113 0.010606703472875336 -0.11120415048256871 0.021908313066323817 -0.0021801186284449961 -0.044096413438916383 -0.081388029570861928 0.051147136041793877 -0.043604854373897321 0.029448408615853544
leaf_count=4102 2613 1559 14579 1390 1621 1276 2760 3280 640 1605 6447 6306 1164 1267 1802
internal_value=0 -0.592121 0.859013 -0.247762 -0.919528 0.321982 -0.334105 -1.0179 -0.328222 -0.446249 -0.357418 -0.915672 0.169336 -0.700531 0.0793411
internal_count=52411 30977 21434 15028 15949 6855 13638 13688 2261 10878 8052 9586 5579 2826 4415
shrinkage=0.1


Tree=3
num_leaves=16
num_cat=0
split_feature=4 0 4 6 6 6 0 0 3 7 4 0 3 3 4
split_gain=5413 727.44 612.771 219.06 177.437 145.92 110.862 103.946 65.1138 40.2399 37.3219 35.3611 32.9867 31.8948 31.2104
threshold=0.47500000000000003 0.038377492488391153 0.92500000000000016 2.5000000000000004 2.5000000000000004 2.5000000000000004 -1.0159792406446324 0.6846490030046436 -0.43235294117647061 2.5000000000000004 -0.074999999999999997 0.55544933078393888 -0.19411764705882331 1.7941176470588236 1.4750000000000003
decision_type=2 2 2 2 2 2 2 2 2 2 2 2 2 2 2
left_child=1 3 5 6 7 11 -1 10 -8 -5 -3 -2 -6 -10 -4
right_child=2 4 14 9 12 -7 8 -9 13 -11 -12 -13 -14 -15 -16
leaf_value=-0.11135928356122592 0.0055424791196612439 -0.058518223843790962 0.092833659897052501 0.075532870353056739 0.014379036704394058 0.091057941912408957 -0.096107799183610454 0.0095473765406741649 -0.067133941176629061 -0.01534978668225569 -0.027512774664272429 0.041406353757241526 0.082178085280019561 0.010987177669688014 0.11164998607940874
leaf_count=4546 4063 2099 7364 344 468 1276 4017 2760 9089 456 6219 1516 762 217 7215
internal_value=0 -0.537634 0.783599 -0.790911 -0.160673 0.290911 -0.837769 -0.240659 -0.745544 0.234919 -0.352804 0.152594 0.563814 -0.653046 1.02146
internal_count=52411 30977 21434 18669 12308 6855 17869 11078 13323 800 8318 5579 1230 9306 14579
shrinkage=0.1


Tree=4
num_leaves=16
num_cat=0
split_feature=4 0 4 6 6 6 0 4 3 4 4 10 8 0 0
split_gain=4450.68 615.703 521.078 180.976 178.189 121.548 109.45 73.4696 48.7811 47.0418 37.6587 36.7296 33.3298 32.2537 27.781
threshold=0.47500000000000003 -0.074023490849494653 0.92500000000000016 2.5000000000000004 1.5000000000000002 2.5000000000000004 0.6846490030046436 -0.074999999999999997 0.66176470588235314 -1.0000000180025095e-35 -0.074999999999999997 1.0000000180025095e-35 1.0000000180025095e-35 -1.2232996449057632 -0.62810707456978954
decision_type=2 2 2 2 2 2 2 2 2 2 2 2 2 2 2
left_child=1 4 5 6 7 12 8 14 10 -6 -3 -12 -2 -9 -1
right_child=2 3 -4 -5 9 -7 -8 13 -10 -11 11 -13 -14 -15 -16
leaf_value=-0.11831215979957022 0.019011947545523846 -0.063177446444471416 0.093980546855980174 0.04940197581401673 -0.059618345253776545 0.083408249746152019 0.0085941673244080662 -0.10496041974684006 -0.0043809958755076511 -0.00037404596481601705 -0.0040083727100940093 -0.041376233708419856 -0.031784370421350509 -0.069393272813847842 -0.087447075360217522
leaf_count=3000 5001 2480 14579 1390 931 1276 2760 1276 1661 1330 1317 5420 578 7343 2069
internal_value=0 -0.489032 0.716876 -0.19915 -0.77055 0.262959 -0.269388 -0.859342 -0.36065 -0.246247 -0.417982 -0.34052 0.137477 -0.745108 -1.05583
internal_count=52411 30977 21434 15028 15949 6855 13638 13688 10878 2261 9217 6737 5579 8619 5069
shrinkage=0.1


Tree=5
num_leaves=16
num_cat=0
split_feature=4 0 4 6 6 6 0 0 6 5 7 3 4 0 5
split_gain=3665.83 518.12 446.478 161.268 115.917 97.1264 91.9837 64.2644 50.3685 50.0625 33.8952 33.3095 30.4323 29.1593 29.5576
threshold=0.47500000000000003 0.064053537284894851 0.72500000000000009 1.5000000000000002 2.5000000000000004 2.5000000000000004 -0.98402075935536726 0.6846490030046436 2.5000000000000004 -0.34999999999999992 2.5000000000000004 -0.99411764705882333 1.4750000000000003 0.64094509696804158 0.95000000000000007
decision_type=2 2 2 2 2 2 2 2 2 2 2 2 2 2 2
left_child=1 3 5 6 7 13 -1 11 -5 -8 -10 -3 -4 14 -2
right_child=2 4 12 8 -6 -7 9 -9 10 -11 -12 -13 -14 -15 -16
leaf_value=-0.098999668796120432 -0.0091592077611675222 -0.075825264991659369 0.077083122877968924 -0.038736836615812328 0.04756293740422779 0.07543296047445637 -0.084491695462170474 0.0077363070331867637 0.068458480325080534 -0.055380230776420784 -0.014176443015522301 -0.024221357716137513 0.095948158079852436 0.041727063272222711 0.024369589562240723
leaf_count=4619 2604 548 7568 1973 1208 1229 3596 2760 350 8052 472 7399 7215 1047 1771
internal_value=0 -0.445339 0.657061 -0.65809 -0.119049 0.227938 -0.737812 -0.185219 -0.210346 -0.642704 0.206339 -0.277544 0.862586 0.115388 0.0438716
internal_count=52411 30977 21434 19062 11915 6651 16267 10707 2795 11648 822 7947 14783 5422 4375
shrinkage=0.1


Tree=6
num_leaves=16
num_cat=0
split_feature=4 0 4 6 6 0 6 4 3 3 10 8 3 0 4
split_gain=3023.35 451.696 383.882 142.305 102.591 89.3317 85.6237 57.1123 40.887 37.267 30.1828 27.0633 25.5311 25.1865 24.7631
threshold=0.47500000000000003 -0.23040152963671126 0.92500000000000016 2.5000000000000004 1.5000000000000002 0.52731494127287637 2.5000000000000004 -0.074999999999999997 -0.46764705882352953 -0.073529411764705871 1.0000000180025095e-35 1.0000000180025095e-35 1.1470588235294119 0.6846490030046436 1.4750000000000003
decision_type=2 2 2 2 2 2 2 2 2 2 2 2 2 2 2
left_child=1 4 6 5 7 8 11 -1 -3 -6 -7 -2 -10 -5 -4
right_child=2 3 14 13 9 10 -8 -9 12 -11 -12 -13 -14 -15 -16
leaf_value=-0.095684795566183894 0.015815851349371416 -0.055447215551537581 0.071649477504215756 0.024396253698199779 -0.054205632966771368 0.02716016961252863 0.070477398815899192 -0.065525564273408318 -0.031250899957200089 0.0029623738991570903 -0.01102297606983195 -0.02997142491317592 0.010355583915394664 0.083969269114807815 0.089007487660442697
leaf_count=4479 5001 3078 7364 1146 940 1054 1276 7216 7097 940 3977 578 657 393 7215
internal_value=0 -0.405873 0.603146 -0.193409 -0.694026 -0.250308 0.214487 -0.768768 -0.355045 -0.255668 -0.0300639 0.110627 -0.276927 0.395518 0.801887
internal_count=52411 30977 21434 17402 13575 15863 6855 11695 10832 1880 5031 5579 7754 1539 14579
shrinkage=0.1


Tree=7
num_leaves=16
num_cat=0
split_feature=4 0 4 6 6 0 6 4 5 10 3 5 4 0 5
split_gain=2494.39 381.933 330.498 115.985 88.5614 74.8774 70.9842 51.2112 46.8257 34.5566 30.541 26.9748 25.2543 25.1537 25.1522
threshold=0.47500000000000003 -0.23040152963671126 0.72500000000000009 2.5000000000000004 1.5000000000000002 0.6846490030046436 1.5000000000000002 -0.074999999999999997 -0.54999999999999993 1.0000000180025095e-35 -0.073529411764705871 -1.0499999999999998 1.4750000000000003 -1.1539196940726575 2.3500000000000001
decision_type=2 2 2 2 2 2 2 2 2 2 2 2 2 2 2
left_child=1 4 6 5 7 8 13 -1 -3 -10 -6 -4 -13 -2 -11
right_child=2 3 11 -5 10 -7 -8 -9 9 14 -12 12 -14 -15 -16
leaf_value=-0.089079747631729614 -0.05340937283374269 -0.050011544903313235 -0.031242730484332029 0.035864440092065158 -0.049183502221301224 0.0072270365547701309 0.04930974889817058 -0.060132947958453226 0.0021334192694092246 -0.028799576691487701 0.0026652139346011734 0.066056246047467446 0.08375963957912394 0.0082782157463280551 0.16152782568268723
leaf_count=4479 283 3376 110 1539 940 2760 2181 7216 1933 7765 940 7520 7153 4187 29
internal_value=0 -0.369859 0.553976 -0.174943 -0.638487 -0.226365 0.185713 -0.709354 -0.291396 -0.220537 -0.231051 0.738011 0.745908 0.0435974 -0.280982
internal_count=52411 30977 21434 17402 13575 15863 6651 11695 13103 9727 1880 14783 14673 4470 7794
shrinkage=0.1


Tree=8
num_leaves=16
num_cat=0
split_feature=4 0 4 6 6 6 0 0 3 4 3 10 3 0 5
split_gain=2058.35 325.343 285.74 98.856 78.4051 64.2477 54.7382 50.9213 42.6451 35.2857 32.261 28.0449 24.8193 23.7988 23.5231
threshold=0.47500000000000003 -0.074023490849494653 0.92500000000000016 1.5000000000000002 2.5000000000000004 2.5000000000000004 -0.98402075935536726 0.81139033051078957 -0.71176470588235297 -1.0000000180025095e-35 0.32352941176470595 1.0000000180025095e-35 0.10294117647058824 0.64094509696804158 0.95000000000000007
decision_type=2 2 2 2 2 2 2 2 2 2 2 2 2 2 2
left_child=1 3 5 6 7 13 -1 8 -3 -5 -8 -10 -6 14 -2
right_child=2 4 -4 9 12 -7 10 -9 11 -11 -12 -13 -14 -15 -16
leaf_value=-0.082043340621217889 -0.0096793276262616135 -0.053455494313665003 0.068761994824161385 -0.04688998701910127 0.0085767684735873154 0.060877470292076158 -0.060389264808790748 0.013301256714673602 0.0037666475262159009 0.0049550626715282381 -0.031478814428312955 -0.022892162081209557 0.063451219484170165 0.035612967921890497 0.019842786880577723
leaf_count=4619 2675 1602 14579 931 754 1276 6818 1861 2009 1330 2251 8166 636 1079 1825
internal_value=0 -0.337139 0.508827 -0.552527 -0.127639 0.174829 -0.623461 -0.173964 -0.223889 -0.160507 -0.531147 -0.175856 0.335429 0.0860853 0.0224582
internal_count=52411 30977 21434 15949 15028 6855 13688 13638 11777 2261 9069 10175 1390 5579 4500
shrinkage=0.1


Tree=9
num_leaves=16
num_cat=0
split_feature=4 0 4 6 0 3 6 6 4 10 10 5 7 4 5
split_gain=1698.98 280.336 245.742 102.575 79.3034 55.4039 53.8117 42.2256 37.5638 33.4204 30.4204 24.002 23.5281 22.735 22.2537
threshold=0.47500000000000003 0.1932532095055996 0.92500000000000016 2.5000000000000004 -1.0159792406446324 -0.43235294117647061 2.5000000000000004 2.5000000000000004 -0.074999999999999997 1.0000000180025095e-35 1.0000000180025095e-35 0.95000000000000007 2.5000000000000004 -0.074999999999999997 -1.2499999999999998
decision_type=2 2 2 2 2 2 2 2 2 2 2 2 2 2 2
left_child=1 3 6 4 -1 13 -2 8 11 -7 -10 -3 -5 -6 -4
right_child=2 7 14 12 5 9 -8 -9 10 -11 -12 -13 -14 -15 -16
leaf_value=-0.074934972630877048 0.0077623119624114396 -0.0361917210818756 -0.036904550333710921 0.056197586248044606 -0.079913655056478627 -0.010041106877896154 0.056027968612476477 0.034438415330391547 0.024807694563048245 -0.039593266554977732 -0.00793152564208012 0.0554812098733167 -0.0081707954361035038 -0.049188549253344649 0.064411553752650313
leaf_count=4546 5579 2167 101 410 1910 2056 1276 1081 1437 8529 5603 124 539 2575 14478
internal_value=0 -0.307319 0.467531 -0.455041 -0.489598 -0.419439 0.158244 -0.0410354 -0.0841191 -0.338111 -0.0119329 -0.311633 0.192505 -0.618273 0.636821
internal_count=52411 30977 21434 20565 19616 15070 6855 10412 9331 10585 7040 2291 949 4485 14579
shrinkage=0.1


Tree=10
num_leaves=16
num_cat=0
split_feature=4 0 4 0 4 6 3 6 6 3 3 4 3 4 8
split_gain=1401.76 244.811 211.829 70.9888 59.3633 49.5034 49.4559 45.4901 36.5329 24.5357 24.1686 23.0768 23.04 22.2697 21.4806
threshold=0.47500000000000003 -0.25798962032231626 0.72500000000000009 0.53960666484567066 -0.074999999999999997 1.5000000000000002 0.64411764705882379 1.5000000000000002 2.5000000000000004 -0.43235294117647061 -0.99411764705882333 1.4750000000000003 1.7352941176470591 -1.0000000180025095e-35 1.0000000180025095e-35
decision_type=2 2 2 2 2 2 2 2 2 2 2 2 2 2 2
left_child=1 4 7 6 9 12 13 14 10 -1 -5 -4 -6 -3 -2
right_child=2 3 11 8 5 -7 -8 -9 -10 -11 -12 -13 -14 -15 -16
leaf_value=-0.088630688566626606 0.0069654384294016609 -0.043627495359152224 0.050205400867298557 -0.050012410243615815 -0.048492663037942856 0.0017302925646912862 0.0069484705108789945 0.038761239851142638 0.052727218070252817 -0.057398846709346911 0.0040453067518441566 0.067758725676883541 0.03765437096422089 -0.021927899922676786 -0.039585680008781259
leaf_count=2107 4028 2854 7568 366 6795 1021 2058 2181 633 3029 4585 7215 144 7385 442
internal_value=0 -0.280081 0.429326 -0.129789 -0.511265 -0.397417 -0.21842 0.136121 0.0577878 -0.699105 0.000995976 0.586166 -0.46648 -0.277658 0.0234434
internal_count=52411 30977 21434 17881 13096 7960 12297 6651 5584 5136 4951 14783 6939 10239 4470
shrinkage=0.1


Tree=11
num_leaves=16
num_cat=0
split_feature=4 0 4 0 0 6 3 6 3 5 6 3 8 3 0
split_gain=1155.67 206.878 182.174 61.3711 59.8618 56.5086 52.2242 40.2589 39.5268 26.1269 25.6737 21.4814 20.6143 20.0127 19.9391
threshold=0.47500000000000003 -0.25798962032231626 0.92500000000000016 0.6846490030046436 -1.2585359191477736 2.5000000000000004 0.3970588235294118 2.5000000000000004 -0.43235294117647061 -0.14999999999999999 2.5000000000000004 1.911764705882353 1.0000000180025095e-35 -1.1676470588235293 0.55544933078393888
decision_type=2 2 2 2 2 2 2 2 2 2 2 2 2 2 2
left_child=1 4 7 6 -1 8 9 14 -6 -3 13 -10 -11 -5 -2
right_child=2 3 -4 10 5 -7 -8 -9 11 12 -12 -13 -14 -15 -16
leaf_value=-0.081883479044917662 -0.0012595215566221555 -0.041150093291406044 0.054590828168131135 -0.07425372032419067 -0.064431937511049364 0.032121960390605213 0.0037007108461197106 0.048403851877734244 -0.037064239604306264 -0.015820820893822269 0.063896037142930476 0.042418138142645848 -0.059109285073104027 0.01064885645817229 0.025874564610032343
leaf_count=2177 4063 3054 14579 116 3305 414 3652 1276 7045 7525 393 155 497 2644 1516
internal_value=0 -0.255038 0.39399 -0.117319 -0.470502 -0.407288 -0.174201 0.128903 -0.440998 -0.245373 0.136352 -0.352601 -0.18485 0.0707827 0.0601149
internal_count=52411 30977 21434 17881 13096 10919 14728 6855 10505 11076 3153 7200 8022 2760 5579
shrinkage=0.1


Tree=12
num_leaves=16
num_cat=0
split_feature=4 0 6 4 6 4 5 8 0 0 5 3 8 0 4
split_gain=956.425 213.734 115.5 78.3545 51.2923 38.0918 35.7403 35.6092 33.0208 29.5438 28.0562 26.5785 26.3187 25.1695 23.1193
threshold=0.72500000000000009 0.064053537284894851 1.5000000000000002 -0.074999999999999997 1.5000000000000002 -0.074999999999999997 -0.14999999999999999 1.0000000180025095e-35 0.85372848948374769 -1.2232996449057632 4.8000000000000007 0.64411764705882379 1.0000000180025095e-35 -0.83324228352909036 0.22500000000000003
decision_type=2 2 2 2 2 2 2 2 2 2 2 2 2 2 2
left_child=1 2 3 10 5 -3 -4 9 12 -5 13 -8 -7 -1 -11
right_child=-2 4 6 7 -6 8 11 -9 -10 14 -12 -13 -14 -15 -16
leaf_value=-0.080782681496881684 0.050155764997222511 -0.029665474405433264 -0.03047489084860304 -0.058130137158732831 0.022349830459477943 -0.001683340576855364 0.0016027881180163952 -0.0640074047203186 0.02835614421325108 -0.027059704987652901 0.17863859013457814 0.046893328908320292 -0.046535618708188682 -0.049766122050468403 -0.0022306918733257823
leaf_count=2350 14783 2228 1041 1300 3772 7486 1834 1208 1424 8310 23 788 574 3376 1914
internal_value=0 -0.16785 -0.308148 -0.380749 0.0115033 -0.0533959 0.0256604 -0.291383 0.00146513 -0.254886 -0.604732 0.152713 -0.0487939 -0.615242 -0.219154
internal_count=52411 37628 22144 18481 15484 11712 3663 12732 9484 11524 5749 2622 8060 5726 10224
shrinkage=0.1


Tree=13
num_leaves=16
num_cat=0
split_feature=4 0 4 0 3 6 8 0 6 6 3 4 3 10 3
split_gain=800.506 150.153 127.397 49.9825 49.1095 44.0404 37.6921 37.1109 31.611 30.3937 28.023 20.7232 19.9203 18.6518 18.2076
threshold=0.47500000000000003 -0.25798962032231626 0.92500000000000016 -1.2585359191477736 0.18235294117647069 1.5000000000000002 1.0000000180025095e-35 0.8787216607484295 2.5000000000000004 2.5000000000000004 -0.43235294117647061 1.4750000000000003 1.9558823529411768 1.0000000180025095e-35 0.53235294117647058
decision_type=2 2 2 2 2 2 2 2 2 2 2 2 2 2 2
left_child=1 3 9 -1 6 10 7 -3 -6 13 -5 -4 -12 -2 -7
right_child=2 4 11 5 8 14 -8 -9 -10 -11 12 -13 -14 -15 -16
leaf_value=-0.073274352800583351 0.027900607217362389 -0.017854106469988598 0.038227775026019921 -0.059134191902369217 0.00080350356509437896 -0.015317442068524742 -0.061774668801195823 0.022960656313217781 0.050675812527534107 0.042762056611641758 -0.034159264438801899 0.055646344663115278 0.059685344760414642 -0.00056624546258996855 0.036713255360637569
leaf_count=2177 1183 10480 7364 2998 5019 1183 768 995 619 1276 6262 7215 104 4396 372
internal_value=0 -0.213477 0.334458 -0.401813 -0.0968022 -0.34403 -0.170779 -0.141396 0.0605333 0.113852 -0.406158 0.466534 -0.324894 0.054694 -0.0254856
internal_count=52411 30977 21434 13096 17881 10919 12243 11475 5638 6855 9364 14579 6366 5579 1555
shrinkage=0.1


Tree=14
num_leaves=16
num_cat=0
split_feature=4 0 4 3 0 6 5 6 3 4 6 6 5 4 1
split_gain=658.773 128.069 108.785 65.1852 50.0587 31.8724 30.7717 25.868 23.6302 24.3955 23.0536 22.2092 20.946 19.6313 19.0333
threshold=0.47500000000000003 0.1932532095055996 0.92500000000000016 0.3970588235294118 -1.1539196940726575 2.5000000000000004 -0.34999999999999992 1.5000000000000002 -0.13823529411764712 -0.52499999999999991 2.5000000000000004 2.5000000000000004 -1.2499999999999998 1.4750000000000003 1.5000000000000002
decision_type=2 2 2 2 2 2 2 2 2 2 2 2 2 2 2
left_child=1 3 7 4 -1 -5 -6 -2 9 -3 -8 -10 -4 -14 -11
right_child=2 8 12 5 6 -7 10 -9 11 14 -12 -13 13 -15 -16
leaf_value=-0.065337039601375546 0.0019484299359655097 -0.059763242552038645 -0.058089545385655451 -0.012820798030575476 -0.047106188113891161 0.057048885180713341 -0.02706088365926599 0.02929498927018739 0.0031771552843750587 0.00043546759932141149 0.019695655282395644 0.045036611774770891 0.035562990900600368 0.05278972216705196 -0.029543326781985874
leaf_count=2993 4587 422 101 4447 4322 294 8051 2268 4843 3326 458 631 7325 7153 1190
internal_value=0 -0.19413 0.306285 -0.299819 -0.369684 -0.0806306 -0.315016 0.102877 -0.015148 -0.117673 -0.242151 0.0765479 0.430587 0.438341 -0.0748413
internal_count=52411 30977 21434 20565 15824 4741 12831 6855 10412 4938 8509 5474 14579 14478 4516
shrinkage=0.1


Tree=15
num_leaves=16
num_cat=0
split_feature=4 0 6 4 0 5 5 5 0 9 7 4 3 3 3
split_gain=544.606 132.554 79.5805 62.8766 32.8161 30.0235 29.8196 29.153 28.6082 24.1488 24.0342 23.5658 22.2094 20.3874 18.4234
threshold=0.72500000000000009 0.038377492488391153 2.5000000000000004 -0.074999999999999997 0.6846490030046436 0.75000000000000011 1.0000000180025095e-35 0.95000000000000007 -1.2232996449057632 1.0000000180025095e-35 2.5000000000000004 -0.72499999999999987 0.25000000000000006 0.10294117647058824 -0.43235294117647061
decision_type=2 2 2 2 2 2 2 2 2 2 2 2 2 2 2
left_child=1 2 3 6 7 8 14 13 -5 12 -4 -8 -10 -3 -1
right_child=-2 4 10 5 -6 -7 11 -9 9 -11 -12 -13 -14 -15 -16
leaf_value=-0.065837998862952704 0.03942658431605911 -0.015872633616279313 0.057573222791080472 -0.054929165175053668 0.016004467667176895 0.0070698311496153014 0.12962579805023675 0.025007285426658865 -0.024569951294394272 -0.064222409247360321 -0.00115137547254162 -0.023415856436149591 -0.0031439563710379693 0.0026610708242825348 -0.040019479888386215
leaf_count=2578 14783 6088 618 1474 4417 1528 80 1244 7210 546 609 137 3127 4206 3766
internal_value=0 -0.125969 -0.242636 -0.276996 0.0110847 -0.199005 -0.46899 -0.0467077 -0.236284 -0.201446 0.274576 0.353476 -0.178238 -0.0824748 -0.49888
internal_count=52411 37628 21673 20446 15955 13885 6561 11538 12357 10883 1227 217 10337 10294 6344
shrinkage=0.1


Tree=16
num_leaves=16
num_cat=0
split_feature=4 0 4 3 6 8 0 6 10 7 6 3 7 5 0
split_gain=452.478 94.8291 76.0479 38.8214 35.4637 37.5755 28.9428 30.1082 28.4724 22.8423 20.3721 19.357 18.0026 18.8664 15.9724
threshold=0.47500000000000003 -0.25798962032231626 0.92500000000000016 -0.71176470588235297 1.5000000000000002 1.0000000180025095e-35 -1.2585359191477736 1.5000000000000002 1.0000000180025095e-35 1.5000000000000002 2.5000000000000004 -0.80882352941176461 2.5000000000000004 -1.2499999999999998 -1.4068560502594918
decision_type=2 2 2 2 2 2 2 2 2 2 2 2 2 2 2
left_child=1 3 10 -1 5 8 -5 9 -3 -8 14 -10 13 -4 -2
right_child=2 4 12 6 -6 -7 7 -9 11 -11 -12 -13 -14 -15 -16
leaf_value=-0.061410321327676626 -0.087359255229861293 0.010029489686758063 -0.059724350230392333 -0.056267358719617612 0.011819787749579879 -0.049821848595125 -0.030678523977355626 0.0067400576348040538 -0.038034276495968002 0.020842771075029135 0.035193036425011863 -0.010286606970819605 0.011066009218341534 0.040154617369776553 0.0053884366030453844
leaf_count=2142 76 2749 94 1720 3460 1042 7433 1327 1274 474 1276 9356 1422 13063 5503
internal_value=0 -0.161725 0.258147 -0.31655 -0.0696544 -0.114909 -0.263958 -0.217998 -0.0857488 -0.275739 0.0888867 -0.134736 0.365661 0.393286 0.0411774
internal_count=52411 30977 21434 13096 17881 14421 10954 9234 13379 7907 6855 10630 14579 13157 5579
shrinkage=0.1


Tree=17
num_leaves=16
num_cat=0
split_feature=4 4 0 5 6 3 10 8 4 0 5 8 4 0 3
split_gain=372.057 108.994 66.6538 55.7111 40.2582 31.0733 27.9491 27.7384 24.1753 23.0751 18.8292 17.7342 17.7305 17.1512 16.0492
threshold=0.72500000000000009 -0.074999999999999997 0.33501775471182743 0.8500000000000002 1.5000000000000002 -0.63235294117647045 1.0000000180025095e-35 1.0000000180025095e-35 -0.52499999999999991 -0.21455886369844301 0.8500000000000002 1.0000000180025095e-35 1.4750000000000003 -1.2232996449057632 0.64411764705882379
decision_type=2 2 2 2 2 2 2 2 2 2 2 2 2 2 2
left_child=1 3 4 5 7 -1 -4 10 -5 -7 13 -8 -2 -3 -6
right_child=12 2 6 8 14 9 11 -9 -10 -11 -12 -13 -14 -15 -16
leaf_value=-0.055595428068671848 0.0255339518642431 -0.044732130420130717 0.032288660864476335 0.11364385628161906 -0.00014986386928781412 -0.040327861659669284 0.007128691502519025 -0.045578188865558616 0.0031124402380319754 -0.01386209250759788 0.0090243215996168458 -0.031746466127018022 0.042241582744603816 -0.014011276329885372 0.031865424943555952
leaf_count=2856 7568 1197 1856 152 2315 3567 6798 1409 223 3008 1393 528 7215 11363 963
internal_value=0 -0.10379 -0.039873 -0.31239 -0.11588 -0.348205 0.100272 -0.163554 0.498902 -0.266751 -0.134799 0.043213 0.333689 -0.16264 0.0922582
internal_count=52411 37628 27822 9806 18640 9431 9182 15362 375 6575 13953 7326 14783 12560 3278
shrinkage=0.1


Tree=18
num_leaves=16
num_cat=0
split_feature=4 0 4 6 3 0 3 7 0 6 6 7 5 4 1
split_gain=311.887 70.9449 51.6804 40.3696 33.8174 26.1284 25.1181 21.5199 16.6018 20.3989 15.8079 15.5893 15.8264 14.3664 14.187
threshold=0.47500000000000003 -0.76577437858508601 0.92500000000000016 2.5000000000000004 0.66176470588235314 0.1932532095055996 -0.82941176470588229 2.5000000000000004 -1.2585359191477736 1.5000000000000002 2.5000000000000004 2.5000000000000004 -1.2499999999999998 -2.2499999999999996 1.5000000000000002
decision_type=2 2 2 2 2 2 2 2 2 2 2 2 2 2 2
left_child=1 6 10 4 5 -3 -1 -5 -8 -10 -2 12 -4 -6 -7
right_child=2 3 11 7 13 14 8 -9 9 -11 -12 -13 -14 -15 -16
leaf_value=-0.072944732967909584 0.0036919337266720234 -0.021988839907021669 -0.056706808032622284 0.04517908185742766 0.16630270635687902 4.649924635992228e-05 -0.050401715309474626 0.00015067292416381221 -0.029213142148793333 0.013307746386655115 0.031326007292798427 0.0068883077536304616 0.034325778534158739 0.0071546531535471684 -0.018460865003134871
leaf_count=971 5579 10613 94 875 24 5319 1842 964 4008 589 1276 1422 13063 3232 2540
internal_value=0 -0.134804 0.217559 -0.0836059 -0.109541 -0.145667 -0.34618 0.211351 -0.294909 -0.224489 0.0786262 0.3089 0.335334 0.0834371 -0.059509
internal_count=52411 30977 21434 23567 21728 18472 7410 1839 6439 4597 6855 14579 13157 3256 7859
shrinkage=0.1


Tree=19
num_leaves=16
num_cat=0
split_feature=5 4 6 0 8 0 10 4 4 3 9 7 6 0 0
split_gain=267.998 101.879 65.2649 46.3065 34.9573 25.7499 22.4731 21.1289 21.9848 18.9362 16.8683 18.9768 13.7817 11.9625 11.7445
threshold=0.95000000000000007 -0.074999999999999997 1.5000000000000002 0.93212237093690253 1.0000000180025095e-35 -0.99986342529363548 1.0000000180025095e-35 -4.8999999999999995 1.425 -0.99411764705882333 1.0000000180025095e-35 1.5000000000000002 2.5000000000000004 -1.1962578530456158 0.81712646817809353
decision_type=2 2 2 2 2 2 2 2 2 2 2 2 2 2 2
left_child=1 5 3 4 6 -1 13 -2 -9 -7 11 12 -4 -3 -13
right_child=7 2 10 -5 -6 9 -8 8 -10 -11 -12 14 -14 -15 -16
leaf_value=-0.056508954959067215 0.18295162422754149 -0.040843897086011188 0.020033854549713969 0.028806259026292427 -0.041182492866168464 -0.05694644409600607 -0.01238270870809767 0.019726346093838679 0.038463015982531268 -0.020911025822368035 -0.028635876212663221 -0.00040896601540194158 0.049642234889620052 0.0089878850088253009 0.046877805750850154
leaf_count=2115 37 321 1888 1320 1741 887 15024 9135 6073 6431 352 1986 1257 3553 291
internal_value=0 -0.0949936 -0.0323246 -0.0859821 -0.112155 -0.304303 -0.0857673 0.26749 0.2626 -0.24913 0.171169 0.200729 0.310098 0.0595644 0.0526216
internal_count=52411 37166 27733 21959 20639 9433 18898 15245 15208 7318 5774 5422 3145 3874 2277
shrinkage=0.1


Tree=20
num_leaves=16
num_cat=0
split_feature=5 4 6 0 3 8 0 4 4 3 10 0 3 6 6
split_gain=219.724 84.2761 53.1457 37.7662 23.8285 21.6381 18.8375 17.9118 20.3442 16.8115 15.6723 14.7687 12.5675 11.8632 10.5805
threshold=0.95000000000000007 -0.074999999999999997 1.5000000000000002 0.66170445233542752 -0.63235294117647045 1.0000000180025095e-35 -1.2585359191477736 -1.0249999999999997 1.425 0.10294117647058824 1.0000000180025095e-35 0.79363561868341992 -0.99411764705882333 1.5000000000000002 2.5000000000000004
decision_type=2 2 2 2 2 2 2 2 2 2 2 2 2 2 2
left_child=1 4 3 5 -1 10 -6 -2 -9 11 12 -4 -3 -8 -11
right_child=7 2 9 -5 6 -7 13 8 -10 14 -12 -13 -14 -15 -16
leaf_value=-0.046645816164084919 0.10665975873852068 -0.052981169756663171 -0.0028298226465117405 0.014377855882609304 -0.065651750099548004 -0.035990520357076158 -0.022783671072108068 0.017272222727495491 0.035486369897915523 0.015023378041855877 -0.01252579957312795 0.043522123645556 0.0063658599366802088 0.00098975152208359975 0.040721889171900311
leaf_count=2856 113 178 2331 2821 619 1633 4743 9059 6073 1572 13937 381 3390 1215 1490
internal_value=0 -0.0860481 -0.0291845 -0.0776377 -0.277961 -0.113803 -0.206347 0.243904 0.235936 0.154928 -0.0921157 0.0335476 0.0348057 -0.173635 0.266517
internal_count=52411 37166 27733 21959 9433 19138 6577 15245 15132 5774 17505 2712 3568 5958 3062
shrinkage=0.1


Tree=21
num_leaves=16
num_cat=0
split_feature=4 0 3 10 6 8 5 9 4 3 0 7 3 0 2
split_gain=185.171 63.0469 42.6353 38.5623 37.9746 23.7045 17.3351 17.173 17.0096 16.7305 15.3928 15.1053 14.9558 18.6025 13.7969
threshold=0.72500000000000009 -1.0159792406446324 -0.56176470588235283 1.0000000180025095e-35 2.5000000000000004 1.0000000180025095e-35 3.4000000000000004 1.0000000180025095e-35 -0.12499999999999999 -0.82941176470588229 0.81139033051078957 1.5000000000000002 1.1470588235294119 0.41559683146681242 -0.68181818181818177
decision_type=2 2 2 2 2 2 2 2 2 2 2 2 2 2 2
left_child=1 9 5 -4 6 8 7 12 -3 -1 -10 -2 13 -5 -6
right_child=11 2 3 4 14 -7 -8 -9 10 -11 -12 -13 -14 -15 -16
leaf_value=-0.073845430894581884 0.028451014460021219 -0.03328231687318732 0.015807593063154362 -0.013124907411273916 0.059469610357292105 -0.070650542732003163 0.095961461484789012 -0.034957369791958265 -0.013256121039472192 -0.028443016409207558 0.02894130549638789 0.0088236335290058088 0.012334030127136797 0.0030581773169869961 0.014699994141799851
leaf_count=661 11758 2290 5121 11412 415 434 67 1006 3932 4474 398 3025 1628 4107 1683
internal_value=0 -0.0729803 -0.0428023 -0.00368113 -0.0455343 -0.195012 -0.075466 -0.0795621 -0.163357 -0.334584 -0.0905538 0.244031 -0.0639451 -0.0846875 0.234832
internal_count=52411 37628 32493 25439 20318 7054 18220 18153 6620 5135 4330 14783 17147 15519 2098
shrinkage=0.1


Tree=22
num_leaves=16
num_cat=0
split_feature=5 4 6 0 8 0 3 4 4 0 10 4 3 0 7
split_gain=156.905 62.3606 39.1414 29.9364 22.8619 20.2278 15.1208 15.0046 14.5929 13.8012 13.9093 13.7102 13.1154 11.6297 10.3885
threshold=0.95000000000000007 -0.074999999999999997 1.5000000000000002 0.93212237093690253 1.0000000180025095e-35 -0.62810707456978954 -0.13823529411764712 -4.8999999999999995 1.425 -1.2232996449057632 1.0000000180025095e-35 -2.2499999999999996 0.10294117647058824 0.84034416826003844 1.5000000000000002
decision_type=2 2 2 2 2 2 2 2 2 2 2 2 2 2 2
left_child=1 5 3 4 9 14 -7 -2 -9 -3 -11 -8 13 -4 -1
right_child=7 2 12 -5 -6 6 11 8 -10 10 -12 -13 -14 -15 -16
leaf_value=-0.046279513471370014 0.15167824927067261 -0.032861711915988613 -0.0018334020704193254 0.023648455321456201 -0.03331067360577316 -0.027663073265694456 0.12459242749860121 0.015128350192457729 0.030755589816617763 0.0064688968312788687 -0.0083523542958327066 -0.0072785492683478011 0.023431728481991793 0.045709142141817677 -0.00035718475046481228
leaf_count=3046 37 1257 2432 1320 1741 3339 36 9135 6073 3598 14043 2686 3062 280 326
internal_value=0 -0.072868 -0.0240369 -0.0657231 -0.0868834 -0.240137 -0.171581 0.208623 0.204333 -0.0656606 -0.0526302 -0.0547028 0.134849 0.0274953 -0.411165
internal_count=52411 37166 27733 21959 20639 9433 6061 15245 15208 18898 17641 2722 5774 2712 3372
shrinkage=0.1


Tree=23
num_leaves=16
num_cat=0
split_feature=4 0 3 4 0 3 3 8 2 0 0 0 2 3 3
split_gain=130.315 38.5621 26.0328 25.4332 20.9761 17.4081 15.8894 19.8712 14.8642 13.4127 16.9388 11.9416 11.6112 11.4251 10.3381
threshold=0.47500000000000003 -0.23040152963671126 0.53235294117647058 1.4750000000000003 0.61909314394974058 -0.99411764705882333 0.10294117647058824 1.0000000180025095e-35 -0.40909090909090901 -0.53605572248019662 -1.4257033597377764 -1.2232996449057632 -1.5909090909090906 -0.99411764705882333 2.7941176470588238
decision_type=2 2 2 2 2 2 2 2 2 2 2 2 2 2 2
left_child=1 2 5 4 9 -1 7 -3 -8 10 -2 -7 -6 -12 -4
right_child=3 6 14 -5 12 11 8 -9 -10 -11 13 -13 -14 -15 -16
leaf_value=-0.05514872423962687 -0.068421856435126438 -0.005651025078056743 0.00046149355204760624 0.027595026426515037 -0.062986567986018274 -0.040432793346515117 0.022344207065905022 -0.045035434051024774 -0.00043300376588724593 0.00067105279215717969 -0.067929285364936476 -0.017546166986368222 0.028197320305954177 0.025336086643561424 0.099642831910738694
leaf_count=1132 105 10086 2242 7215 72 1953 1614 644 5058 8539 68 8197 3027 2408 51
internal_value=0 -0.0880087 -0.188784 0.144467 0.094655 -0.239179 -0.0278515 -0.0785893 0.050771 0.0496863 0.190591 -0.210298 0.260283 0.227995 0.028471
internal_count=52411 30977 13575 21434 14219 11282 17402 10730 6672 11120 2581 10150 3099 2476 2293
shrinkage=0.1


Tree=24
num_leaves=16
num_cat=0
split_feature=5 4 6 0 7 9 10 0 4 0 7 4 10 1 4
split_gain=111.222 51.4023 42.9732 32.2122 27.4883 24.5005 21.7632 15.8373 12.901 12.808 11.9609 14.5334 20.4381 11.8029 11.0396
threshold=0.95000000000000007 -0.82499999999999984 2.5000000000000004 -1.2585359191477736 2.5000000000000004 1.0000000180025095e-35 1.0000000180025095e-35 0.34375853591914779 -0.52499999999999991 0.63466266047528008 2.5000000000000004 0.87500000000000011 1.0000000180025095e-35 1.5000000000000002 -2.2499999999999996
decision_type=2 2 2 2 2 2 2 2 2 2 2 2 2 2 2
left_child=1 14 3 -3 -4 6 9 -8 -2 -5 11 12 -10 -9 -1
right_child=8 2 4 5 -6 -7 7 13 10 -11 -12 -13 -14 -15 -16
leaf_value=0.033001620381586515 0.078233750527170604 -0.040637995998442873 0.041145056507460129 0.00372585924592817 -0.00017020954968275211 -0.03390591267134474 -0.010973058887412603 0.0073112073911432308 0.039862338445646475 0.031361621467873288 -0.0042207502569271546 0.024724857534750413 -6.0161317521208323e-05 -0.010712939828857343 -0.04107982207817007
leaf_count=110 151 1907 1676 4743 1496 1370 15286 4664 700 875 1429 10234 2731 2365 2674
internal_value=0 -0.0614507 -0.0399994 -0.0646358 0.206259 -0.0499972 -0.0362701 -0.0672487 0.177479 0.0829106 0.169352 0.191185 0.0807472 0.0124351 -0.378297
internal_count=52411 37166 34382 31210 3172 29303 27933 22315 15245 5618 15094 13665 3431 7029 2784
shrinkage=0.1


Tree=25
num_leaves=16
num_cat=0
split_feature=4 3 0 3 0 10 1 9 7 5 6 4 4 4 1
split_gain=92.7642 38.6031 33.1782 28.3148 16.9899 14.8796 15.2836 12.2688 12.1871 12.1638 11.9239 13.3291 11.6095 10.0297 9.72787
threshold=0.72500000000000009 -0.99411764705882333 0.53960666484567066 0.66176470588235314 -1.2232996449057632 1.0000000180025095e-35 1.5000000000000002 1.0000000180025095e-35 1.5000000000000002 -1.0000000180025095e-35 1.5000000000000002 -0.87499999999999989 -2.2499999999999996 2.5250000000000004 1.5000000000000002
decision_type=2 2 2 2 2 2 2 2 2 2 2 2 2 2 2
left_child=1 -1 3 4 -3 -4 -7 10 9 13 11 -6 -5 -2 -9
right_child=8 2 5 12 7 6 -8 14 -10 -11 -12 -13 -14 -15 -16
leaf_value=-0.033360653492824827 -0.010024519335286905 -0.03356693607392186 0.027432133961984267 0.17001622355962551 -0.035555240041482895 0.012189858989995977 -0.010228589132601379 -0.0015720476886870085 0.0035343487846529391 0.023076794986401875 0.003677077570024292 -0.0087214485077521733 0.0064568870070549475 -0.16156544110724833 -0.048643162398049611
leaf_count=2537 348 2162 1470 20 1168 3622 2002 318 3025 11385 3347 15148 5157 25 677
internal_value=0 -0.0515561 -0.0341083 -0.0703197 -0.105403 0.0899198 0.0415845 -0.0892917 0.177398 0.214941 -0.0774692 -0.103044 0.0708285 -0.21028 -0.33175
internal_count=52411 37628 35091 27997 22820 7094 5624 20658 14783 11758 19663 16316 5177 373 995
shrinkage=0.1


Tree=26
num_leaves=16
num_cat=0
split_feature=5 4 6 0 7 10 0 9 3 4 0 0 4 5 3
split_gain=78.6769 38.846 32.9858 24.3628 22.5898 18.381 13.8766 12.2628 12.1265 11.541 11.4448 11.4425 11.0757 9.95193 9.46884
threshold=0.95000000000000007 -0.82499999999999984 2.5000000000000004 -1.1539196940726575 2.5000000000000004 1.0000000180025095e-35 -1.1307019939907128 1.0000000180025095e-35 1.1470588235294119 0.92500000000000016 0.1932532095055996 1.0165255394700903 -4.8999999999999995 -0.14999999999999999 -0.24411764705882341
decision_type=2 2 2 2 2 2 2 2 2 2 2 2 2 2 2
left_child=1 -1 3 -3 -4 6 -5 8 10 -9 -7 13 -2 -8 -6
right_child=12 2 4 5 14 7 11 9 -10 -11 -12 -13 -14 -15 -16
leaf_value=-0.033164076647924715 0.1287309697552812 -0.027017870601616208 0.037278900302645586 0.17751575176546469 -0.022402323891945214 -0.011595968311012816 -0.013208690952961866 -0.035930398170773654 0.012338978369999653 0.050365858648929167 -0.00098984816666708702 0.06770458586660287 0.014697475263081914 0.0097170668804277376 0.013076728565857398
leaf_count=2784 37 3371 1676 28 531 11754 1155 1002 1592 99 7876 131 15208 4202 965
internal_value=0 -0.0517331 -0.0332254 -0.054832 0.183828 -0.037146 0.0730246 -0.0653701 -0.0539911 -0.294381 -0.0692408 0.0662621 0.150754 0.0506603 -0.00391412
internal_count=52411 37166 34382 31210 3172 27839 5516 22323 21222 1101 19630 5488 15245 5357 1496
shrinkage=0.1


Tree=27
num_leaves=16
num_cat=0
split_feature=4 3 10 0 6 8 2 3 0 7 0 7 4 6 3
split_gain=65.5007 30.4856 24.7821 20.688 18.7564 14.3963 14.1097 13.6448 12.3144 18.402 12.1004 10.2991 10.4558 9.56201 9.65275
threshold=0.72500000000000009 -0.99411764705882333 1.0000000180025095e-35 -1.2585359191477736 1.5000000000000002 1.0000000180025095e-35 -0.68181818181818177 0.14117647058823524 0.038377492488391153 1.5000000000000002 0.23996175908221801 1.5000000000000002 4.0500000000000007 1.5000000000000002 -1.0832352941176466
decision_type=2 2 2 2 2 2 2 2 2 2 2 2 2 2 2
left_child=1 -1 7 -4 5 8 -6 10 9 -5 -3 12 13 14 -2
right_child=11 2 3 4 6 -7 -8 -9 -10 -11 -12 -13 -14 -15 -16
leaf_value=-0.029644854632496071 -0.042264905614997468 -0.0082665610338674474 -0.035099599984107561 -0.013621383153966445 0.028337202178925443 -0.026480089485702518 0.0011529191327000229 0.019788279333339442 -0.0001778178610233679 0.025282956421233866 0.016416603070178178 0.0019569353987950906 -0.086390246610611232 0.030411373612011513 0.01569834340915767
leaf_count=2537 192 2819 1690 10186 1109 1850 4249 2872 8367 655 1294 3025 63 3551 7952
internal_value=0 -0.0433118 -0.0278423 -0.0573441 -0.0452674 -0.0750006 0.0673163 0.0866525 -0.0578885 -0.111866 0.00504215 0.150646 0.185681 0.19131 0.143154
internal_count=52411 37628 35091 28106 26416 21058 5358 6985 19208 10841 4113 14783 11758 11695 8144
shrinkage=0.1


Tree=28
num_leaves=16
num_cat=0
split_feature=5 4 0 6 8 6 0 9 7 7 4 2 3 4 7
split_gain=56.3187 32.109 21.4372 15.032 13.5216 12.6603 13.4924 11.8512 15.0912 11.5147 10.2817 9.8381 8.87099 8.82781 8.61126
threshold=0.95000000000000007 -0.074999999999999997 0.8787216607484295 1.5000000000000002 1.0000000180025095e-35 1.5000000000000002 -0.83324228352909036 1.0000000180025095e-35 1.5000000000000002 1.5000000000000002 -0.52499999999999991 -1.4090909090909089 -0.073529411764705871 -0.52499999999999991 2.5000000000000004
decision_type=2 2 2 2 2 2 2 2 2 2 2 2 2 2 2
left_child=1 5 3 4 -3 6 9 8 -5 13 -2 -10 -13 -1 -12
right_child=10 2 -4 7 -6 -7 -8 -9 11 -11 14 12 -14 -15 -16
leaf_value=-0.074277151023770624 0.067077557317983191 -0.0036443551699597483 0.02074220301123994 0.021193931539845202 -0.024682126524342322 -0.0002752829057882439 -0.016069686257286109 -0.031909049284828274 0.11148595942456006 0.034245816276858874 0.014008635667440717 -0.021479415709816749 0.0073178270159814686 -0.034104180382190964 -0.0059066619019324425
leaf_count=709 151 18840 1959 2813 1736 1745 5391 337 36 144 13665 838 1174 1444 1429
internal_value=0 -0.0438702 -0.00888666 -0.0259881 -0.0527297 -0.167266 -0.214106 0.0786797 0.105941 -0.411645 0.128488 -0.0332579 -0.0526379 -0.467746 0.121036
internal_count=52411 37166 27733 25774 20576 9433 7688 5198 4861 2297 15245 2048 2012 2153 15094
shrinkage=0.1


Tree=29
num_leaves=16
num_cat=0
split_feature=4 3 0 4 0 0 0 3 4 1 10 8 2 0 2
split_gain=46.765 22.1456 18.7073 14.3306 14.1869 12.7703 12.5316 11.4855 10.8387 9.86029 10.7909 9.58656 9.5799 9.34651 9.18421
threshold=0.47500000000000003 0.44117647058823534 -0.23040152963671126 1.4750000000000003 0.61909314394974058 -0.53605572248019662 -1.4257033597377764 -0.71176470588235297 1.2750000000000001 1.5000000000000002 1.0000000180025095e-35 1.0000000180025095e-35 -1.5909090909090906 0.81712646817809353 1.2272727272727275
decision_type=2 2 2 2 2 2 2 2 2 2 2 2 2 2 2
left_child=1 2 7 4 5 6 -2 -1 -7 13 11 -11 -6 -4 -8
right_child=3 -3 9 -5 12 8 14 -9 -10 10 -12 -13 -14 -15 -16
leaf_value=-0.034663874048389345 -0.060187809745990362 0.0053199270484679574 -0.0025299244336277216 0.019094989181616659 -0.061919014758619544 -0.0024706745069479875 0.022395280441681278 -0.013204012509827542 -0.17449047483433974 0.018411461092292091 -0.018166589355274355 -0.054457072486917724 0.021054912182350997 0.018596064068476099 -0.031951813575311669
leaf_count=2204 105 6897 8421 7215 72 8516 2308 8515 23 643 3221 94 3027 982 168
internal_value=0 -0.053208 -0.0867553 0.0883649 0.0510112 0.0138036 0.153333 -0.16958 -0.0285118 -0.0388695 -0.12742 0.0973309 0.190091 -0.00161274 0.186302
internal_count=52411 30977 24080 21434 14219 11120 2581 10719 8539 13361 3958 737 3099 9403 2476
shrinkage=0.1


Tree=30
num_leaves=16
num_cat=0
split_feature=5 4 10 6 0 5 7 0 3 9 0 3 7 3 3
split_gain=41.7361 27.1738 16.3973 16.398 12.7432 12.3213 10.8475 12.9028 10.3521 10.9298 10.1493 9.42014 9.12264 9.02991 8.83893
threshold=-1.0000000180025095e-35 0.72500000000000009 1.0000000180025095e-35 2.5000000000000004 0.13152144222889925 1.5500000000000003 2.5000000000000004 -0.20554493307839386 1.1470588235294119 1.0000000180025095e-35 -0.15200764818355639 -1.0176470588235291 1.5000000000000002 -0.82941176470588229 -1.3823529411764703
decision_type=2 2 2 2 2 2 2 2 2 2 2 2 2 2 2
left_child=4 2 -2 5 13 8 7 -5 9 14 -9 -6 -3 -1 -4
right_child=1 12 3 6 11 -7 -8 10 -10 -11 -12 -13 -14 -15 -16
leaf_value=-0.042988522749117693 0.010111092658956501 0.016345437691087268 -0.056729094139043881 0.071779673505782626 -0.042729301461267973 0.043458760621045645 -0.0010621881664447626 -0.096878913068961431 0.010309233961142684 -0.030635486852152075 0.021974553293561155 -0.00031573246431274926 0.00036182158328891377 -0.016541370081777227 -0.0053708455049132388
leaf_count=1162 5455 11385 176 288 286 220 989 38 1626 935 879 3237 2948 5927 16860
internal_value=0 0.0318359 -0.00315198 -0.029923 -0.132468 -0.0490274 0.153702 0.303561 -0.055045 -0.0706989 0.168362 -0.0339043 0.129055 -0.199912 -0.0585101
internal_count=52411 41799 27466 22011 10612 19817 2194 1205 19597 17971 917 3523 14333 7089 17036
shrinkage=0.1


Tree=31
num_leaves=16
num_cat=0
split_feature=5 4 0 4 4 3 0 5 1 6 3 2 3 10 6
split_gain=34.0553 22.492 17.8786 11.9236 11.2045 10.5453 10.2278 9.37128 8.84264 9.36461 8.50443 7.83243 13.6498 9.00109 8.01542
threshold=-1.0000000180025095e-35 1.4750000000000003 0.66170445233542752 -1.0249999999999997 -0.52499999999999991 0.12352941176470598 -1.2129199672220703 -6.7499999999999991 1.5000000000000002 2.5000000000000004 -1.2205882352941175 1.2272727272727275 2.5588235294117649 1.0000000180025095e-35 1.5000000000000002
decision_type=2 2 2 2 2 2 2 2 2 2 2 2 2 2 2
left_child=4 2 3 -2 10 6 -5 -6 9 -4 -1 13 -13 -7 -15
right_child=1 -3 8 5 7 11 -8 -9 -10 -11 -12 12 -14 14 -16
leaf_value=-0.073543923621827698 0.056756459038373931 0.017371462312181226 0.014676208808562656 -0.028881502050956999 -0.15538668633228636 0.01698360553670349 -0.0039735321401812634 -0.0077212880919671689 0.0012490743571228575 0.046441142896107609 -0.022463633435060974 -0.021185694831201959 0.094072672864888768 -0.0022085763626034783 0.012281262765924544
leaf_count=277 167 7014 2463 1266 22 2342 15444 8122 1862 656 2191 990 53 6848 2694
internal_value=0 0.0287686 0.00928068 -0.0118887 -0.120085 -0.0153362 -0.0528104 -0.0814044 0.129606 0.201506 -0.272172 0.0320896 -0.152678 0.0482756 0.0175261
internal_count=52411 41799 34785 29804 10612 29637 16710 8144 4981 3119 2468 12927 1043 11884 9542
shrinkage=0.1


Tree=32
num_leaves=16
num_cat=0
split_feature=5 0 6 4 3 4 3 4 9 0 0 3 0 7 6
split_gain=28.2786 22.3905 18.9945 17.6348 10.8757 9.69869 8.60519 8.1265 8.0475 8.18538 7.51427 7.32554 8.63847 7.08968 10.7899
threshold=0.95000000000000007 -1.2585359191477736 1.5000000000000002 -0.87499999999999989 -0.13823529411764712 -2.2499999999999996 -0.80882352941176461 -4.8999999999999995 1.0000000180025095e-35 -0.99194209232450137 0.98484020759355373 -1.1676470588235293 0.15009560229445509 2.5000000000000004 2.5000000000000004
decision_type=2 2 2 2 2 2 2 2 2 2 2 2 2 2 2
left_child=1 -1 3 4 -3 -6 -5 -2 13 -10 -8 12 -9 14 -4
right_child=7 2 8 6 5 -7 10 11 9 -11 -12 -13 -14 -15 -16
leaf_value=-0.030562963378850533 0.10886172473085257 -0.043563428555644129 0.0077067192020629175 -0.015943066288550568 0.097492459776387444 -0.012825045074896221 -0.0028687488063113354 -0.079724334898651536 0.10068446517970329 -0.028035769349484596 0.016929675735033067 0.0096440227951044583 0.0069513396726350544 -0.0027271829549876852 0.030286486400616541
leaf_count=2313 37 1258 3606 2674 42 667 22097 118 25 418 874 14934 156 1594 1598
internal_value=0 -0.0311694 -0.0200656 -0.0469831 -0.279687 -0.0530015 -0.0333604 0.0921698 0.0798663 -0.20693 -0.0203722 0.0888925 -0.302406 0.0985925 0.138638
internal_count=52411 37166 34853 27612 1967 709 25645 15245 7241 443 22971 15208 274 6798 5204
shrinkage=0.1


Tree=33
num_leaves=16
num_cat=0
split_feature=5 4 0 0 4 4 0 1 0 1 6 5 3 0 3
split_gain=24.6473 16.903 13.4489 9.91667 8.60974 8.46119 7.25426 7.42702 7.85749 7.24464 7.622 7.10273 14.4725 8.25733 7.67327
threshold=-1.0000000180025095e-35 1.4750000000000003 0.66170445233542752 0.13152144222889925 -1.0249999999999997 -0.17499999999999996 0.028817263042884459 1.5000000000000002 -0.84307566238732579 1.5000000000000002 2.5000000000000004 1.1500000000000001 -1.2205882352941175 0.053673859601201863 -0.43235294117647061
decision_type=2 2 2 2 2 2 2 2 2 2 2 2 2 2 2
left_child=3 2 4 6 -2 -6 7 -1 -9 10 -4 12 -3 -13 -15
right_child=1 11 9 -5 5 -7 -8 8 -10 -11 -12 13 -14 14 -16
leaf_value=-0.019797615922523507 0.048097184857710314 -0.11815356580666439 0.012903594795936038 -0.0015791629954279201 -0.015708004618582721 -0.00036623013678411181 -0.052304078020635705 -0.024883655084440143 0.0097467418502436218 0.00064413140544020131 0.041970549809351353 0.021324271357930392 0.025384048492875913 0.038609155943981545 -0.013532190391041888
leaf_count=4947 167 51 2463 3523 2160 27477 264 717 1161 1862 656 1466 3649 250 1598
internal_value=0 0.0245 0.00767044 -0.102686 -0.0106948 -0.0136389 -0.163173 -0.145052 -0.012545 0.112423 0.177975 0.15134 0.233168 0.0577598 -0.0649742
internal_count=52411 41799 34785 10612 29804 29637 7089 6825 1878 4981 3119 7014 3700 3314 1848
shrinkage=0.1


Tree=34
num_leaves=16
num_cat=0
split_feature=5 4 3 1 9 2 4 0 3 0 7 2 4 0 0
split_gain=20.0857 14.5691 12.4314 11.1673 10.4349 9.33672 9.54565 9.77258 9.39135 8.4287 7.98359 8.37057 14.9756 13.6483 7.66536
threshold=-1.0000000180025095e-35 0.72500000000000009 0.66176470588235314 1.5000000000000002 1.0000000180025095e-35 1.3181818181818183 -1.0249999999999997 -0.76577437858508601 2.5588235294117649 -1.0610488937448783 1.5000000000000002 1.4090909090909094 1.9750000000000003 -1.0000000180025095e-35 -0.17877629063097511
decision_type=2 2 2 2 2 2 2 2 2 2 2 2 2 2 2
left_child=9 2 3 14 -5 6 -4 -8 -7 -1 -3 -12 13 -13 -2
right_child=1 10 5 4 -6 8 7 -9 -10 -11 11 12 -14 -15 -16
leaf_value=-0.028249174605768451 -0.0060013470437507589 0.012710894933459444 0.11125866020749101 -0.007148979710862622 -0.036638333707360728 -0.026170065582066311 -0.011027783333499359 0.014767507872164751 0.09024387165204735 -0.0069256172388340743 -0.00030429857881639563 -0.039966648382560643 0.088193897886268399 -0.32006411879154983 0.004432436522976875
leaf_count=1792 5880 11385 44 6736 679 481 883 4007 33 8820 2881 23 23 21 8723
internal_value=0 0.0221258 -0.00339265 -0.0270165 -0.0966474 0.0867212 0.114958 0.106252 -0.185898 -0.0929414 0.0943763 -0.0238803 -0.922316 -1.74127 0.00764768
internal_count=52411 41799 27466 22018 7415 5448 4934 4890 514 10612 14333 2948 67 44 14603
shrinkage=0.1


Tree=35
num_leaves=16
num_cat=0
split_feature=6 3 7 2 5 0 7 9 0 2 0 0 0 4 8
split_gain=19.3651 19.0171 14.028 12.8585 12.0562 11.1633 17.0355 9.09522 9.05791 8.88525 8.45202 8.32419 7.57297 8.29701 7.54107
threshold=1.5000000000000002 -0.99411764705882333 1.5000000000000002 1.4090909090909094 0.95000000000000007 -1.0159792406446324 1.5000000000000002 1.0000000180025095e-35 -1.2232996449057632 1.0000000180025095e-35 -0.53605572248019662 0.22411909314394976 0.85372848948374769 -0.87499999999999989 1.0000000180025095e-35
decision_type=2 2 2 2 2 2 2 2 2 2 2 2 2 2 2
left_child=1 14 7 8 5 6 -3 10 -4 -8 -2 -12 13 -7 -1
right_child=2 4 3 -5 -6 12 9 -9 -10 -11 11 -13 -14 -15 -16
leaf_value=-0.020918690212925334 0.032242814610238583 -0.022341179883994578 -0.052669894995693967 -0.083671060482366152 0.0065074627358286362 -0.022512920762745411 0.10366659768938409 -0.014262126451504637 0.001888116952120891 -0.0042071380848007715 0.002907862886303755 0.020546943984737567 0.011479687211976734 -0.0022910925676104667 -0.083557414027115098
leaf_count=2277 1466 3680 172 100 9244 1285 120 590 4831 98 2748 3271 1653 20735 141
internal_value=0 -0.0255211 0.0777166 -0.0153081 -0.0135684 -0.0356121 -0.176848 0.140161 0.000831103 0.544241 0.16242 0.122986 -0.0210611 -0.0323802 -0.242344
internal_count=52411 39233 13178 5103 36815 27571 3898 8075 5003 218 7485 6019 23673 22020 2418
shrinkage=0.1


Tree=36
num_leaves=16
num_cat=0
split_feature=3 0 10 4 4 0 4 0 0 5 4 4 4 9 2
split_gain=16.621 14.2425 9.8445 10.2328 9.37295 9.29324 9.11649 8.91886 9.74016 8.15765 7.66608 7.3817 6.93477 6.65647 6.58488
threshold=0.064705882352941266 -1.2129199672220703 1.0000000180025095e-35 -2.2499999999999996 0.77500000000000013 -0.18341983064736408 0.075000000000000025 0.62346353455340087 -0.57566238732586716 4.2500000000000009 3.7750000000000004 2.4750000000000005 -1.2249999999999999 1.0000000180025095e-35 0.22727272727272729
decision_type=2 2 2 2 2 2 2 2 2 2 2 2 2 2 2
left_child=1 -1 -2 -4 9 -6 -3 8 -8 12 11 -10 -5 -14 -13
right_child=2 6 3 4 5 -7 7 -9 10 -11 -12 14 13 -15 -16
leaf_value=-0.026656698728416341 0.013643036306736767 -0.0054745888683819452 0.10664689313918399 -0.055938089808081605 0.023917263984411564 0.0033476508171010689 0.019933574440397814 0.018094892567583027 -0.0054375744970690601 0.08790941815673925 -0.14074746774393096 0.0689575286916322 0.00010235928331902514 -0.020551999774159464 -0.037589164230845802
leaf_count=2183 4845 17501 45 134 2281 4800 1135 2043 5226 45 28 187 11084 816 58
internal_value=0 -0.038338 0.0445562 0.0207596 0.0180235 0.0998886 -0.0263977 0.0383537 -0.00300561 -0.014073 -0.044069 -0.0382992 -0.0176373 -0.0126219 0.434869
internal_count=52411 28361 24050 19205 19160 7081 26178 8677 6634 12079 5499 5471 12034 11900 245
shrinkage=0.1


Tree=37
num_leaves=16
num_cat=0
split_feature=3 6 7 2 4 0 7 2 4 0 3 0 5 3 0
split_gain=15.0938 12.3792 12.0896 10.2487 9.7602 12.4513 10.5372 9.57767 9.04147 8.80073 7.95833 7.83089 7.0134 6.4276 6.30914
threshold=-0.99411764705882333 1.5000000000000002 1.5000000000000002 1.4090909090909094 -0.074999999999999997 -0.63630155695165247 1.5000000000000002 -1.7727272727272725 -0.37499999999999994 -0.76577437858508601 0.50882352941176479 0.5712919967222071 0.95000000000000007 0.95588235294117652 0.15555859054903035
decision_type=2 2 2 2 2 2 2 2 2 2 2 2 2 2 2
left_child=9 4 -3 7 5 6 -2 -4 12 -1 11 -9 -7 -14 -5
right_child=1 2 3 14 -6 8 -8 10 -10 -11 -12 -13 13 -15 -16
leaf_value=-0.046632578250362627 -0.03286000242217909 0.013280350449994621 0.13195614519033103 -0.027772607108524153 0.00046481393868362509 -0.0039516599976964018 0.036635017406918352 -0.015106573078196607 -0.068383901647510778 -0.011020509149973916 0.011067418955598268 0.012089601262392459 0.02113884295577043 0.12873444421074642 -0.14531876649852343
leaf_count=771 2336 7672 33 61 29911 4108 168 2060 105 2234 1955 771 157 30 39
internal_value=0 0.00911324 0.0727767 -0.015013 -0.0119807 -0.0967504 -0.272977 0.000182049 -0.0345266 -0.17126 -0.00777342 -0.0818501 -0.0179335 0.379181 -0.738986
internal_count=52411 49406 12591 4919 36815 6904 2504 4819 4400 3005 4786 2831 4295 187 100
shrinkage=0.1


Tree=38
num_leaves=16
num_cat=0
split_feature=3 4 0 1 0 5 0 0 0 4 3 0 6 3 2
split_gain=12.5542 11.0986 11.5378 8.508 6.71239 6.56796 8.11379 9.62999 8.99854 9.93265 10.7452 7.20777 6.05015 6.1864 5.93774
threshold=-1.0176470588235291 1.4750000000000003 0.6846490030046436 1.5000000000000002 0.73381589729582097 1.1500000000000001 0.1932532095055996 0.5712919967222071 0.78817263042884467 2.4750000000000005 -0.13823529411764712 0.55544933078393888 2.5000000000000004 -0.82941176470588229 -1.7727272727272725
decision_type=2 2 2 2 2 2 2 2 2 2 2 2 2 2 2
left_child=-1 2 14 12 -5 -3 -7 11 -9 -10 -11 -8 13 -4 -2
right_child=1 5 3 4 -6 6 7 8 9 10 -12 -13 -14 -15 -16
leaf_value=-0.017530131864029058 0.038338206314579577 0.018974196167947821 0.058868378559925542 0.074911144028757634 -0.003681269818467026 0.015715521929376811 -0.029038146415641782 0.037431066666514232 -0.047744440292970813 -0.1000334598220104 0.071887643393530529 -0.13732579874548792 0.037068799942806811 0.0095049509755206398 -0.0020912271975331615
leaf_count=2437 194 3797 119 52 2069 1667 628 406 320 37 133 51 697 2600 37204
internal_value=0 0.00741341 -0.00396486 0.088328 -0.0177336 0.11232 0.0190751 -0.123301 0.0671966 -0.187413 0.356896 -0.372081 0.157113 0.117069 -0.0188683
internal_count=52411 49974 42935 5537 2121 7039 3242 1575 896 490 170 679 3416 2719 37398
shrinkage=0.1


Tree=39
num_leaves=16
num_cat=0
split_feature=6 3 8 0 7 2 0 9 0 0 0 4 7 0 4
split_gain=11.7885 12.6604 10.3112 12.4145 9.41689 8.03378 7.52519 7.13383 7.08151 6.81849 6.42225 6.01516 8.15917 8.19732 6.64994
threshold=1.5000000000000002 -0.71176470588235297 1.0000000180025095e-35 -0.76577437858508601 1.5000000000000002 1.4090909090909094 -1.4257033597377764 1.0000000180025095e-35 -0.53605572248019662 -1.2232996449057632 0.22411909314394976 -0.074999999999999997 1.5000000000000002 -0.63630155695165247 -4.8999999999999995
decision_type=2 2 2 2 2 2 2 2 2 2 2 2 2 2 2
left_child=1 2 3 -1 7 9 -3 8 -2 -6 -10 12 13 -8 -15
right_child=4 6 -4 -5 5 -7 11 -9 10 -11 -12 -13 -14 14 -16
leaf_value=-0.039164902127762843 0.027964048150481171 -0.038603818143365151 -0.0616362267155115 -0.0052595508077421041 -0.046389161704042448 -0.064863633991069133 -0.026700501750385831 -0.013833546957194074 0.001354743041626662 0.0013392803863683724 0.016940873196177805 0.0010753721645877178 0.022688930679442759 0.064099856784993983 -0.0060936860708336836
leaf_count=1207 1466 426 298 3339 172 100 1888 590 2748 4831 3271 27996 453 65 3561
internal_value=0 -0.0199543 -0.139628 -0.112191 0.0609522 -0.0153979 -0.00542851 0.112504 0.132417 -0.00224172 0.0960642 -0.00238425 -0.0734438 -0.100466 -0.0471021
internal_count=52411 39233 4844 4546 13178 5103 34389 8075 7485 5003 6019 33963 5967 5514 3626
shrinkage=0.1


Tree=40
num_leaves=16
num_cat=0
split_feature=3 0 10 4 4 5 8 4 3 2 2 5 4 0 0
split_gain=10.674 9.34507 8.01019 7.75732 7.66723 6.63714 6.50136 7.71641 6.98626 10.3429 6.60576 6.44609 6.04028 5.68763 10.3167
threshold=0.064705882352941266 -1.2129199672220703 1.0000000180025095e-35 -2.2499999999999996 -0.82499999999999984 4.2500000000000009 1.0000000180025095e-35 0.97500000000000009 -0.53823529411764681 0.68181818181818199 -1.136363636363636 0.95000000000000007 -1.2249999999999999 -0.53605572248019662 -0.78352909041245555
decision_type=2 2 2 2 2 2 2 2 2 2 2 2 2 2 2
left_child=1 -1 13 -4 11 12 -6 8 9 10 -8 -3 -5 14 -2
right_child=2 4 3 5 6 -7 7 -9 -10 -11 -12 -13 -14 -15 -16
leaf_value=-0.021912239533449285 0.010821248749082853 -0.022066888740782931 0.093080352039815281 -0.050827729584952401 -0.00018535697300704182 0.034415772771316744 0.061088563868340884 0.016876432528276732 -0.012395530516974907 0.062849659646015729 -0.071150953607834508 0.044752372118331989 0.00096341302400843845 0.0078287864830990754 0.059716244324840045
leaf_count=2183 775 1740 45 134 22661 420 22 414 880 46 348 67 18606 3727 343
internal_value=0 -0.030838 0.0358232 0.0142841 -0.0212689 0.0119021 -0.0116955 -0.153422 -0.232557 -0.497316 -0.627307 -0.183525 0.00626556 0.118947 0.270879
internal_count=52411 28361 24050 19205 26178 19160 24371 1710 1296 416 370 1807 18740 4845 1118
shrinkage=0.1


Tree=41
num_leaves=16
num_cat=0
split_feature=6 5 4 3 7 4 2 2 4 0 7 10 5 0 9
split_gain=9.37806 10.6049 9.4719 10.2839 7.74747 7.62253 9.3078 7.51525 8.30278 6.94645 8.9383 6.73752 7.52822 7.06653 5.79072
threshold=1.5000000000000002 -6.7499999999999991 -0.82499999999999984 -0.13823529411764712 1.5000000000000002 2.3250000000000006 1.4090909090909094 1.2272727272727275 -4.8999999999999995 0.064053537284894851 1.5000000000000002 1.0000000180025095e-35 -2.1499999999999999 -1.4257033597377764 1.0000000180025095e-35
decision_type=2 2 2 2 2 2 2 2 2 2 2 2 2 2 2
left_child=1 -1 3 -3 14 6 -6 8 -5 10 -10 -4 -13 -14 -2
right_child=4 2 11 7 5 -7 -8 -9 9 -11 -12 12 13 -15 -16
leaf_value=-0.16307686463831539 0.011935307873056439 -0.033511979775588917 0.005279110084591635 0.091338759197614972 -0.0017553946915026546 0.045325236806324262 -0.07374189027036189 -0.085845120083137494 -0.028386743144255263 0.0333896046417387 0.072934758916682482 0.1109069353721069 -0.044549397078978419 -0.0022893995747148553 -0.012450641300863246
leaf_count=21 7485 1477 7244 53 4769 245 89 53 534 190 61 29 344 29227 590
internal_value=0 -0.0178468 -0.0169417 -0.181253 0.0544227 -0.0148355 -0.031745 0.0184605 0.077308 0.00454275 -0.16345 -0.00900119 -0.0247461 -0.0259492 0.101322
internal_count=52411 39233 39212 2368 13178 5103 4858 891 838 785 595 36844 29600 29571 8075
shrinkage=0.1


Tree=42
num_leaves=16
num_cat=0
split_feature=3 4 0 1 0 5 0 3 0 0 3 0 3 4 5
split_gain=8.60448 8.56732 8.44876 7.03915 6.13048 5.88622 5.70202 6.42817 6.30222 6.80342 6.36351 5.68746 8.50245 8.8286 8.27049
threshold=-1.2205882352941175 1.4750000000000003 0.6846490030046436 1.5000000000000002 0.73381589729582097 1.1500000000000001 0.053673859601201863 -0.47588235294117637 0.5712919967222071 0.55544933078393888 0.44117647058823534 0.78817263042884467 -1.0000000180025095e-35 2.3250000000000006 2.9500000000000006
decision_type=2 2 2 2 2 2 2 2 2 2 2 2 2 2 2
left_child=-1 2 -2 -4 -5 -3 -7 -8 9 -9 -11 -10 14 -14 -13
right_child=1 5 3 4 -6 6 7 8 11 10 -12 12 13 -15 -16
leaf_value=-0.020461091146506058 -0.0018111707535517271 0.017021169312981654 0.013479594872701256 0.070868690528866823 -0.0041092024630825508 0.014343462550326128 0.038291619817671776 -0.025568553344778727 0.029621707007686422 -0.2349018185878757 -0.033953229520628105 -0.047622093333597251 -0.030129632990702315 0.064246588919455602 -0.24237108720926273
leaf_count=1283 38348 3845 3502 53 2100 1451 201 788 358 22 22 79 212 126 21
internal_value=0 0.00437068 -0.00546721 0.0728855 -0.0230647 0.0966517 0.00863446 -0.0935653 -0.150873 -0.317537 -1.32579 0.0290736 -0.181627 0.0307281 -0.890412
internal_count=52411 51128 44003 5655 2153 7125 3280 1829 1628 832 44 796 438 338 100
shrinkage=0.1


Tree=43
num_leaves=16
num_cat=0
split_feature=5 3 7 3 6 0 0 3 4 0 2 0 6 0 0
split_gain=8.27287 6.52267 7.42425 10.5416 9.77089 8.82464 11.3031 8.32547 6.76714 10.3062 7.51487 7.37221 7.17725 7.17466 6.93219
threshold=-1.0000000180025095e-35 1.1470588235294119 2.5000000000000004 1.3088235294117649 2.5000000000000004 0.15009560229445509 0.55544933078393888 1.6176470588235297 0.47500000000000003 -0.53605572248019662 -0.59090909090909072 -0.4418191750887735 2.5000000000000004 -0.25798962032231626 -0.80729308931985788
decision_type=2 2 2 2 2 2 2 2 2 2 2 2 2 2 2
left_child=-1 8 -3 -4 7 -6 -7 -5 10 14 12 -11 13 -2 -10
right_child=1 2 3 4 5 6 -8 -9 9 11 -12 -13 -14 -15 -16
leaf_value=-0.0060471382010130132 -0.012305946564850942 0.012436877029912637 0.047540050469336168 -0.15217004673039169 0.039532365512686768 -0.099528393537476584 0.016635213857396563 -0.040559230443070027 0.0079311725497203285 -0.039279410528039793 -0.0043999329319355041 0.0021893419473402089 0.035542730318918123 0.0094757264955770814 0.032796018877931314
leaf_count=10612 1303 4689 122 48 136 98 109 114 1676 246 15871 13556 359 2351 1121
internal_value=0 0.014239 0.0921068 -0.15133 -0.303383 -0.0612284 -0.394354 -0.756641 0.00349486 0.0415959 -0.0224295 0.0140242 0.0630238 0.0331521 0.176343
internal_count=52411 41799 5316 627 505 343 207 162 36483 16599 19884 13802 4013 3654 2797
shrinkage=0.1


Tree=44
num_leaves=16
num_cat=0
split_feature=3 4 2 3 4 0 2 3 7 10 4 3 0 5 0
split_gain=7.17592 7.92425 7.18403 8.75146 7.14031 7.0314 7.64146 7.02392 8.19756 6.5996 6.95603 6.47242 6.44876 8.95858 6.22267
threshold=0.064705882352941266 3.7750000000000004 1.2272727272727275 2.7941176470588238 2.4750000000000005 0.19707730128380227 0.50000000000000011 2.0147058823529416 1.5000000000000002 1.0000000180025095e-35 -2.2499999999999996 -1.0176470588235291 0.95998361103523633 0.45000000000000007 -0.42433761267413267
decision_type=2 2 2 2 2 2 2 2 2 2 2 2 2 2 2
left_child=1 5 9 4 7 11 -7 12 14 -2 -11 -1 -4 -14 -9
right_child=2 -3 3 -5 -6 6 -8 8 -10 10 -12 -13 13 -15 -16
leaf_value=-0.022392451350879493 0.011948569251461594 -0.10464421927988879 -0.0090113672748502859 0.074044412870978432 0.080552744265392218 0.003744776769864116 -0.017456765797746517 0.058873856231477256 -0.15106279494222649 0.095195759520420309 0.0018174389795561582 -0.0042538803507862367 -0.020302886020431229 -0.1954061380177276 -0.069774744196267391
leaf_count=1569 4473 49 1421 66 60 9713 895 29 40 40 17794 16135 38 26 63
internal_value=0 -0.0253472 0.0294513 -0.11301 -0.144281 -0.0238422 0.0193423 -0.168047 -0.67327 0.0407741 0.0204517 -0.0554652 -0.122997 -0.815152 -0.285784
internal_count=52411 28361 24050 1743 1677 28312 10608 1617 132 22307 17834 17704 1485 64 92
shrinkage=0.1


Tree=45
num_leaves=16
num_cat=0
split_feature=0 6 0 0 8 3 4 2 7 0 5 3 4 3 3
split_gain=6.85172 7.28257 7.69914 6.174 5.93915 9.10957 5.66975 6.36842 6.16281 5.66921 5.27136 5.05654 4.90025 4.84091 6.83946
threshold=-1.2585359191477736 1.5000000000000002 -0.46858781753619222 -0.45711554220158418 1.0000000180025095e-35 -0.71176470588235297 0.52500000000000013 0.13636363636363638 1.5000000000000002 1.0542201584266595 -1.0499999999999998 0.14117647058823524 4.0500000000000007 -0.24411764705882341 -0.052941176470588144
decision_type=2 2 2 2 2 2 2 2 2 2 2 2 2 2 2
left_child=-1 4 -3 11 12 10 7 13 -9 -5 -6 -4 -2 -7 -15
right_child=1 2 3 9 5 6 -8 8 -10 -11 -12 -13 -14 14 -16
leaf_value=-0.014256051087154727 -0.0001641221672089191 0.018623293585431577 -0.16151848739290808 0.0029420220900238415 0.041629220899364688 -0.019730710601950276 0.012518894767487136 -0.025420946827276678 0.028442460368400126 0.094976433338397503 -0.071549370114469213 -0.01658066109458764 -0.085222804995422341 0.074379800428102702 0.0041436387646623446
leaf_count=2722 33751 2014 23 10681 39 242 772 1348 112 40 240 29 43 103 252
internal_value=0 0.00505749 0.0537778 0.028567 -0.0110539 -0.111093 -0.0754686 -0.131071 -0.210566 0.0326281 -0.578659 -0.756334 -0.0025388 0.0702538 0.230873
internal_count=52411 49689 12787 10773 36902 3108 2829 2057 1460 10721 279 52 33794 597 355
shrinkage=0.1


Tree=46
num_leaves=16
num_cat=0
split_feature=5 3 0 2 4 4 9 3 1 5 3 2 2 5 0
split_gain=6.44367 5.95423 6.28266 7.20929 7.27561 6.78687 6.10887 12.1984 6.39791 6.21139 6.15158 6.03883 5.86358 6.0606 5.5041
threshold=-7.0499999999999989 -1.2205882352941175 0.8787216607484295 1.2272727272727275 0.72500000000000009 1.4750000000000003 1.0000000180025095e-35 -0.63235294117647045 1.5000000000000002 -2.0499999999999994 -0.073529411764705871 -1.0000000180025095e-35 -0.49999999999999994 1.9500000000000002 -0.83324228352909036
decision_type=2 2 2 2 2 2 2 2 2 2 2 2 2 2 2
left_child=-1 14 5 -4 -5 6 9 -8 10 -3 11 -9 -10 -14 -2
right_child=1 2 3 4 -6 -7 7 8 12 -11 -12 -13 13 -15 -16
leaf_value=-0.13043329982624396 -0.06045704678031584 0.070810091093580149 0.011601624624359378 -0.012206409518744904 -0.13859131585993098 0.008503541387391152 -0.065231268326769093 0.023238401438446174 0.073486660529015632 -0.00066389618317125808 -0.0029589962037859913 0.11970348418861064 -0.022218239267405401 0.052625101058426452 -0.010693490968313998
leaf_count=20 283 68 3525 77 42 6300 251 134 42 38898 402 45 1261 66 997
internal_value=0 0.000558338 0.00417508 0.0963792 -0.439494 -0.00307872 -0.0119235 -0.131718 -0.0737122 -0.00547991 0.1264 0.481733 -0.161678 -0.187583 -0.171084
internal_count=52411 52391 51111 3644 119 47467 41167 2201 1950 38966 581 179 1369 1327 1280
shrinkage=0.1


Tree=47
num_leaves=16
num_cat=0
split_feature=5 4 5 0 4 5 3 4 7 6 1 4 0 3 7
split_gain=6.16221 5.17107 4.98786 7.8306 5.0384 7.42881 4.72659 6.80902 5.90826 8.65101 11.9098 5.77328 6.65496 5.74616 6.33008
threshold=-1.0000000180025095e-35 2.5250000000000004 4.8000000000000007 1.0116088500409726 2.2750000000000004 56.250000000000007 1.1470588235294119 0.22500000000000003 2.5000000000000004 1.5000000000000002 1.5000000000000002 -1.0000000180025095e-35 -0.21455886369844301 1.3088235294117649 1.5000000000000002
decision_type=2 2 2 2 2 2 2 2 2 2 2 2 2 2 2
left_child=1 -1 6 4 5 -4 11 13 -9 10 -10 12 -2 14 -8
right_child=2 -3 3 -5 -6 -7 7 8 9 -11 -12 -13 -14 -15 -16
leaf_value=-0.0049405949752359922 -0.026288125843137989 -0.10256673084617374 0.099210214354009618 -0.13390736257613781 0.068634082092579374 0.0050429341129026349 0.0272545714201613 0.0052603928618190042 -0.0077199265949373479 -0.0070741810800728465 -0.17607180546022788 0.0007693499090632161 -0.00079278408068261016 0.011979148074793168 0.095196459079030959
leaf_count=10585 1213 27 46 22 187 532 259 3178 48 397 44 33510 1161 1125 77
internal_value=0 -0.0523239 0.0123153 0.223844 0.269435 0.156258 0.00927839 0.0767341 0.0126067 -0.238112 -0.875765 0.000124347 -0.113044 0.192824 0.434575
internal_count=52411 10612 41799 787 765 578 41012 5128 3667 489 92 35884 2374 1461 336
shrinkage=0.1


end of trees

feature importances:
Column_0=172
Column_4=148
Column_3=110
Column_6=87
Column_5=59
Column_7=39
Column_2=28
Column_10=26
Column_8=22
Column_9=15
Column_1=14

parameters:
[boosting: gbdt]
[objective: binary]
[metric: auc]
[tree_learner: serial]
[device_type: cpu]
[data: ]
[valid: ]
[num_iterations: 100]
[learning_rate: 0.1]
[num_leaves: 16]
[num_threads: 0]
[max_depth: -1]
[min_data_in_leaf: 20]
[min_sum_hessian_in_leaf: 0.001]
[bagging_fraction: 1]
[bagging_freq: 0]
[bagging_seed: 3]
[feature_fraction: 1]
[feature_fraction_seed: 2]
[early_stopping_round: 0]
[max_delta_step: 0]
[lambda_l1: 0]
[lambda_l2: 0]
[min_gain_to_split: 0]
[drop_rate: 0.1]
[max_drop: 50]
[skip_drop: 0.5]
[xgboost_dart_mode: 0]
[uniform_drop: 0]
[drop_seed: 4]
[top_rate: 0.2]
[other_rate: 0.1]
[min_data_per_group: 100]
[max_cat_threshold: 32]
[cat_l2: 10]
[cat_smooth: 10]
[max_cat_to_onehot: 4]
[top_k: 20]
[monotone_constraints: ]
[feature_contri: ]
[forcedsplits_filename: ]
[refit_decay_rate: 0.9]
[verbosity: 1]
[max_bin: 255]
[min_data_in_bin: 3]
[bin_construct_sample_cnt: 200000]
[histogram_pool_size: -1]
[data_random_seed: 1]
[output_model: LightGBM_model.txt]
[snapshot_freq: -1]
[input_model: ]
[output_result: LightGBM_predict_result.txt]
[initscore_filename: ]
[valid_data_initscores: ]
[pre_partition: 0]
[enable_bundle: 1]
[max_conflict_rate: 0]
[is_enable_sparse: 1]
[sparse_threshold: 0.8]
[use_missing: 1]
[zero_as_missing: 0]
[two_round: 0]
[save_binary: 0]
[enable_load_from_binary_file: 1]
[header: 0]
[label_column: ]
[weight_column: ]
[group_column: ]
[ignore_column: ]
[categorical_feature: ]
[predict_raw_score: 0]
[predict_leaf_index: 0]
[predict_contrib: 0]
[num_iteration_predict: -1]
[pred_early_stop: 0]
[pred_early_stop_freq: 10]
[pred_early_stop_margin: 10]
[convert_model_language: ]
[convert_model: gbdt_prediction.cpp]
[num_class: 1]
[is_unbalance: 0]
[scale_pos_weight: 1]
[sigmoid: 1]
[boost_from_average: 1]
[reg_sqrt: 0]
[alpha: 0.9]
[fair_c: 1]
[poisson_max_delta_step: 0.7]
[tweedie_variance_power: 1.5]
[max_position: 20]
[label_gain: ]
[metric_freq: 1]
[is_provide_training_metric: 0]
[eval_at: ]
[num_machines: 1]
[local_listen_port: 12400]
[time_out: 120]
[machine_list_filename: ]
[machines: ]
[gpu_platform_id: -1]
[gpu_device_id: -1]
[gpu_use_dp: 0]

end of parameters

pandas_categorical:null
